--[[
	Code generated using github.com/Herrtt/luamin.js
	An open source Lua beautifier and minifier.
--]]



--
return (function(...)
  local L_1_, L_2_
  do
    local L_3_ = math.floor
    local L_4_ = math.random
    local L_5_ = table.remove
    local L_6_ = string.char
    local L_7_ = 0
    local L_8_ = 2
    local L_9_ = {}
    local L_10_ = {}
    local L_11_ = 0
    local L_12_ = {}
    for L_16_forvar0 = 1, 256, 1 do
      L_12_[L_16_forvar0] = L_16_forvar0
    end
    repeat
      local L_17_ = L_4_(1, # L_12_)
      local L_18_ = L_5_(L_12_, L_17_)
      L_10_[L_18_] = L_6_(L_18_ - 1)
    until # L_12_ == 0
    local L_13_ = {}
    local function L_14_func()
      if # L_13_ == 0 then
        L_7_ = (L_7_ * 169 + 13332951252993) % 35184372088832
        repeat
          L_8_ = (L_8_ * 179) % 257
        until L_8_ ~= 1
        local L_19_ = L_8_ % 32
        local L_20_ = (L_3_(L_7_ / 2 ^ (13 - (L_8_ - L_19_) / 32)) % 4294967296.0) / 2 ^ L_19_
        local L_21_ = L_3_((L_20_ % 1) * 4294967296.0) + L_3_(L_20_)
        local L_22_ = L_21_ % 65536
        local L_23_ = (L_21_ - L_22_) / 65536
        local L_24_ = L_22_ % 256
        local L_25_ = (L_22_ - L_24_) / 256
        local L_26_ = L_23_ % 256
        local L_27_ = (L_23_ - L_26_) / 256
        L_13_ = {
          L_24_;
          L_25_;
          L_26_;
          L_27_
        }
      end
      return table.remove(L_13_)
    end
    local L_15_ = {}
    L_1_ = setmetatable({}, {
      __index = L_15_;
      __metatable = nil
    })
    function L_2_(L_28_arg0, L_29_arg1)
      local L_30_ = L_15_
      if L_30_[L_29_arg1] then
      else
        L_13_ = {}
        local L_31_ = L_10_
        L_7_ = L_29_arg1 % 35184372088832
        L_8_ = L_29_arg1 % 255 + 2
        local L_32_ = string.len(L_28_arg0)
        L_30_[L_29_arg1] = ""
        local L_33_ = 74
        for L_34_forvar0 = 1, L_32_, 1 do
          L_33_ = ((string.byte(L_28_arg0, L_34_forvar0) + L_14_func()) + L_33_) % 256
          L_30_[L_29_arg1] = L_30_[L_29_arg1] .. L_31_[L_33_ + 1]
        end
      end
      return L_29_arg1
    end
  end
  do
    local L_35_ = true
    local L_36_ = string[L_1_[L_2_("\088\105\230\221\109\156", 3506601050112)]]
    local L_37_ = function()
      error(L_1_[L_2_("\139\165\104\160\135\172\162\132\"\087\t\002\124\202\214\099", 33345965244416)])
    end
    local L_38_ = false
    local L_39_ = pcall(function()
      L_38_ = true
    end) and L_38_
    local L_40_ = math[L_1_[L_2_("\231\106\156\'\163\180", 2855583203328)]]
    local L_41_ = table[L_1_[L_2_("\249\254\002\164\066\018", 18811998928896)]]
    local L_42_ = table and table[L_1_[L_2_("\249\063\128\215\102\152", 25674018226176)]] or unpack
    local L_43_ = L_40_(3, 65)
    local L_44_ = 0
    local L_45_ = 0
    local L_46_ = {
      pcall(function()
        local L_49_ = 15737818 - L_1_[L_2_("\042\253\027\005\067\212\208\195\059\231  \131\130\205\161\177\018\244\086\038\056\044\212\165\084\251\019\149\058\147\096\000\'\185\079\079\185\041\005\158\075\014\129\182\033\208\014\086\142\166\134\044\197\151\124\165\073", 33814742286336)] ^ 1685915
        return L_1_[L_2_("\093\000\218\071\148\133\005\061\142\015\218\'\021\213\184\022\111\029\095\066\167\099\157\070\077\071\138\173\115\241\092\016\249\128\040\253\177\194\155\060\036\078\119\138\239\165\246\160\234\125", 6907155267584)] / L_49_
      end)
    }
    local L_47_ = L_46_[2]
    local L_48_ = tonumber((L_36_(tostring(L_47_), L_1_[L_2_("\168\188\246\070-\067\075", 4442745700352)]))())
    for L_50_forvar0 = 1, L_43_, 1 do
      local L_51_ = math[L_1_[L_2_("\080\238\143\184\054\094", 24059529019392)]](1, 100)
      local L_52_ = L_40_(0, 255)
      local L_53_ = L_40_(1, L_51_)
      local L_54_ = L_40_(1, 2) == 1
      local L_55_ = L_47_:gsub(L_1_[L_2_("\184\101\191\051\084\237\t", 9439800246272)], L_1_[L_2_("\244", 29604623826944)] .. (tostring(L_40_(0, 10000)) .. L_1_[L_2_("\236", 24752052879360)]))
      local L_56_ = {
        pcall(function()
          if L_40_(1, 2) == 1 or L_50_forvar0 == L_43_ then
            local L_58_ = tonumber((L_36_(tostring(({
              pcall(function()
                local L_59_ = 2561529 - L_1_[L_2_("\137\027\159\203\038\241\235\231\073\161\078\015\246\236\233\175\221\043-\139\067\095~\198\046\230\033\153\048\138\184\186\207\r\215\113\238\216\218\210\053\058\a\119\243\245\145\101\180\020\085\076\206\217\113\123\025\035", 11548446703616)] ^ 1218637
                return L_1_[L_2_("\v\141\026\144\134\109\086\143\063\165\161-\153\162\224\163\041\183\014\233\233\093\223\253\242\t\124\245\161\076\046\144\224\204\089\b\048\219\081\237\233\128\159\213\021\239\020\158\028\185\005\093\144\036\114\139\159\v\187\247\074\079\232 \029\055\037\131\239\196\134\047\208\251\"\237\189\096\000\250\062\094\180\024\050\197\223", 9916426403840)] / L_59_
              end)
            })[2]), L_1_[L_2_("\236\093\183\063\068\125\014", 33791501877248)]))())
            L_35_ = L_35_ and L_48_ == L_58_
          end
          if L_54_ then
            error(L_55_, 0)
          end
          local L_57_ = {}
          for L_60_forvar0 = 1, L_51_, 1 do
            L_57_[L_60_forvar0] = L_40_(0, 255)
          end
          L_57_[L_53_] = L_52_
          return L_42_(L_57_)
        end)
      }
      if L_54_ then
        L_35_ = L_35_ and (L_56_[1] == false and L_56_[2] == L_55_)
      else
        L_35_ = L_35_ and L_56_[1]
        L_44_ = (L_44_ + L_56_[L_53_ + 1]) % 256
        L_45_ = (L_45_ + L_52_) % 256
      end
    end
    L_35_ = L_35_ and L_44_ == L_45_
    if L_35_ then
    else
      repeat
        return (function()
          while true do
            l1, l2 = l2, l1
            L_37_()
          end
        end)()
      until true
      while true do
        l2 = L_40_(1, 6)
        if l2 > 2 then
          l2 = tostring(l1)
        else
          l1 = l2
        end
      end
      return
    end
  end
  return (function(L_61_arg0, L_62_arg1, L_63_arg2, L_64_arg3, L_65_arg4, L_66_arg5, L_67_arg6, L_68_arg7, L_69_arg8, L_70_arg9, L_71_arg10, L_72_arg11, L_73_arg12, L_74_arg13, L_75_arg14, L_76_arg15, L_77_arg16, L_78_arg17)
    L_74_arg13, L_78_arg17, L_76_arg15, L_71_arg10, L_69_arg8, L_73_arg12, L_75_arg14, L_77_arg16, L_70_arg9, L_68_arg7, L_72_arg11 = function(L_79_arg0, L_80_arg1)
      local L_81_ = L_76_arg15(L_80_arg1)
      local L_82_ = function(L_83_arg0, L_84_arg1, L_85_arg2)
        return L_69_arg8(L_79_arg0, {
          L_83_arg0;
          L_84_arg1,
          L_85_arg2
        }, L_80_arg1, L_81_)
      end
      return L_82_
    end, 0, function(L_86_arg0)
      for L_87_forvar0 = 1, # L_86_arg0, 1 do
        L_70_arg9[L_86_arg0[L_87_forvar0]] = 1 + L_70_arg9[L_86_arg0[L_87_forvar0]]
      end
      if L_63_arg2 then
        local L_88_ = L_63_arg2(true)
        local L_89_ = L_65_arg4(L_88_)
        L_89_[L_1_[L_2_("\141\246\'\202\239\152\031", 34068948303872)]], L_89_[L_1_[L_2_("\021\168 \122", 1296401907712)]], L_89_[L_1_[L_2_("\224\002\160\249\112", 26573564395520)]] = L_86_arg0, L_73_arg12, function()
          return 1255870
        end
        return L_88_
      else
        return L_64_arg3({}, {
          [L_1_[L_2_("\171\239\167\124", 29036741787648)]] = L_73_arg12;
          [L_1_[L_2_("\168\213\106\224\205\044\099", 24060217032704)]] = L_86_arg0;
          [L_1_[L_2_("\019\122\214\105\138", 5653906866176)]] = function()
            return 1255870
          end
        })
      end
    end, function()
      L_78_arg17 = L_78_arg17 + 1
      L_70_arg9[L_78_arg17] = 1
      return L_78_arg17
    end, function(L_90_arg0, L_91_arg1, L_92_arg2, L_93_arg3)
      local L_94_ = {}
      local L_95_, L_96_, L_97_, L_98_, L_99_, L_100_, L_101_, L_102_, L_103_, L_104_, L_105_, L_106_, L_107_, L_108_, L_109_, L_110_, L_111_, L_112_, L_113_, L_114_, L_115_, L_116_, L_117_, L_118_, L_119_, L_120_, L_121_, L_122_, L_123_, L_124_, L_125_, L_126_, L_127_, L_128_, L_129_, L_130_, L_131_, L_132_, L_133_, L_134_, L_135_, L_136_, L_137_, L_138_, L_139_, L_140_, L_141_, L_142_, L_143_, L_144_, L_145_, L_146_, L_147_, L_148_, L_149_, L_150_, L_151_, L_152_, L_153_, L_154_, L_155_, L_156_, L_157_, L_158_, L_159_, L_160_, L_161_, L_162_, L_163_, L_164_, L_165_, L_166_, L_167_, L_168_, L_169_, L_170_, L_171_, L_172_, L_173_, L_174_, L_175_, L_176_, L_177_, L_178_, L_179_, L_180_, L_181_, L_182_, L_183_, L_184_, L_185_, L_186_, L_187_, L_188_, L_189_, L_190_, L_191_, L_192_, L_193_, L_194_
      while L_90_arg0 do
        if L_90_arg0 < 8114410 then
          if L_90_arg0 < 6259718 then
            if L_90_arg0 < 2072535 then
              if L_90_arg0 < 956854 then
                if L_90_arg0 < 804012 then
                  if L_90_arg0 < 774919 then
                    L_90_arg0 = 8353257
                    L_118_ = L_177_
                  else
                    L_90_arg0 = 16426733
                    L_118_ = nil
                    L_137_ = nil
                  end
                else
                  L_160_ = L_1_[L_2_("\129", 22532333944832)]
                  L_98_ = L_136_ == L_160_
                  L_90_arg0 = L_98_ and 7269764 or 3809442
                end
              else
                if L_90_arg0 < 1193567 then
                  if L_90_arg0 < 1172499 then
                    L_193_ = L_128_
                    L_90_arg0 = L_193_
                    L_127_[L_193_] = L_90_arg0
                    L_90_arg0 = 6294539
                    L_193_ = nil
                  else
                    L_126_ = -46929
                    L_137_ = -46925
                    L_90_arg0 = {}
                    L_72_arg11[L_92_arg2[2]] = L_90_arg0
                    L_113_ = L_72_arg11[L_92_arg2[3]]
                    L_177_ = L_113_
                    L_186_ = L_72_arg11[L_92_arg2[4]]
                    L_118_ = L_186_(L_137_)
                    L_113_ = L_116_ % L_118_
                    L_72_arg11[L_92_arg2[5]] = L_113_
                    L_137_ = L_72_arg11[L_92_arg2[4]]
                    L_152_ = L_137_(L_126_)
                    L_101_ = -46924
                    L_126_ = -46922
                    L_118_ = L_116_ % L_152_
                    L_137_ = L_72_arg11[L_92_arg2[4]]
                    L_152_ = L_137_(L_126_)
                    L_186_ = L_118_ + L_152_
                    L_72_arg11[L_92_arg2[6]] = L_186_
                    L_90_arg0 = 3194976
                    L_152_ = L_1_[L_2_("\029\231 \189\197\090", 24269836173312)]
                    L_139_ = -46911
                    L_137_ = L_61_arg0[L_152_]
                    L_152_ = L_72_arg11[L_92_arg2[4]]
                    L_126_ = L_152_(L_101_)
                    L_118_ = L_137_[L_126_]
                    L_101_ = -46911
                    L_126_ = -46916
                    L_137_ = L_118_(L_121_)
                    L_118_ = L_72_arg11[L_92_arg2[4]]
                    L_152_ = L_118_(L_126_)
                    L_99_[L_116_] = L_152_
                    L_126_ = -46934
                    L_118_ = L_72_arg11[L_92_arg2[4]]
                    L_152_ = L_118_(L_126_)
                    L_118_ = L_72_arg11[L_92_arg2[4]]
                    L_126_ = L_118_(L_101_)
                    L_101_ = L_72_arg11[L_92_arg2[4]]
                    L_149_ = L_101_(L_139_)
                    L_118_ = L_137_
                    L_101_ = L_149_
                    L_149_ = 0
                    L_139_ = L_101_ < L_149_
                    L_149_ = L_126_ - L_101_
                  end
                else
                  L_126_ = L_149_
                  L_179_ = L_1_[L_2_("\113\106\189\119\062\027", 3566804533248)]
                  L_193_ = L_61_arg0[L_179_]
                  L_169_ = -46930
                  L_179_ = L_72_arg11[L_92_arg2[4]]
                  L_128_ = L_179_(L_169_)
                  L_133_ = L_193_[L_128_]
                  L_193_ = L_133_(L_121_, L_126_)
                  L_133_ = L_72_arg11[L_92_arg2[7]]
                  L_179_ = L_133_()
                  L_127_ = L_193_ + L_179_
                  L_193_ = -46923
                  L_187_ = L_127_ + L_152_
                  L_127_ = L_72_arg11[L_92_arg2[4]]
                  L_133_ = L_127_(L_193_)
                  L_125_ = L_187_ % L_133_
                  L_127_ = L_99_[L_116_]
                  L_169_ = -46911
                  L_152_ = L_125_
                  L_126_ = nil
                  L_179_ = L_72_arg11[L_92_arg2[4]]
                  L_128_ = L_179_(L_169_)
                  L_193_ = L_152_ + L_128_
                  L_90_arg0 = 3194976
                  L_133_ = L_177_[L_193_]
                  L_187_ = L_127_ .. L_133_
                  L_99_[L_116_] = L_187_
                end
              end
            else
              if L_90_arg0 < 4245323 then
                if L_90_arg0 < 3513934 then
                  if L_90_arg0 < 2783510 then
                    L_121_ = L_72_arg11[L_92_arg2[1]]
                    L_113_ = # L_121_
                    L_121_ = L_72_arg11[L_92_arg2[2]]
                    L_99_ = -46910
                    L_116_ = L_121_(L_99_)
                    L_90_arg0 = L_113_ == L_116_
                    L_90_arg0 = L_90_arg0 and 4428589 or 12835121
                  else
                    L_125_ = not L_139_
                    L_149_ = L_149_ + L_101_
                    L_126_ = L_149_ <= L_118_
                    L_126_ = L_125_ and L_126_
                    L_125_ = L_149_ >= L_118_
                    L_125_ = L_139_ and L_125_
                    L_126_ = L_125_ or L_126_
                    L_125_ = 1653623
                    L_90_arg0 = L_126_ and L_125_
                    L_126_ = 8069609
                    L_90_arg0 = L_90_arg0 or L_126_
                  end
                else
                  L_136_ = nil
                  L_90_arg0 = 8181791
                  L_194_ = nil
                  L_160_ = 1
                  L_98_ = L_105_ + L_160_
                  L_105_ = L_98_
                end
              else
                if L_90_arg0 < 4685329 then
                  if L_90_arg0 < 4429288 then
                    L_116_ = L_72_arg11[L_92_arg2[3]]
                    L_186_ = -46920
                    L_99_ = L_72_arg11[L_92_arg2[2]]
                    L_177_ = L_99_(L_186_)
                    L_121_ = L_116_ * L_177_
                    L_177_ = -46919
                    L_116_ = L_72_arg11[L_92_arg2[2]]
                    L_99_ = L_116_(L_177_)
                    L_113_ = L_121_ + L_99_
                    L_99_ = -46925
                    L_121_ = L_72_arg11[L_92_arg2[2]]
                    L_116_ = L_121_(L_99_)
                    L_90_arg0 = L_113_ % L_116_
                    L_72_arg11[L_92_arg2[3]] = L_90_arg0
                    L_177_ = -46911
                    L_90_arg0 = 11048484
                    L_121_ = L_72_arg11[L_92_arg2[4]]
                    L_116_ = L_72_arg11[L_92_arg2[2]]
                    L_99_ = L_116_(L_177_)
                    L_113_ = L_121_ ~= L_99_
                  else
                    L_116_ = L_72_arg11[L_92_arg2[4]]
                    L_149_ = -46922
                    L_99_ = L_72_arg11[L_92_arg2[2]]
                    L_186_ = -46928
                    L_177_ = L_99_(L_186_)
                    L_121_ = L_116_ % L_177_
                    L_125_ = -46914
                    L_177_ = L_72_arg11[L_92_arg2[5]]
                    L_137_ = L_72_arg11[L_92_arg2[3]]
                    L_126_ = L_72_arg11[L_92_arg2[2]]
                    L_90_arg0 = 12835121
                    L_101_ = L_126_(L_149_)
                    L_149_ = L_72_arg11[L_92_arg2[2]]
                    L_139_ = L_149_(L_125_)
                    L_187_ = L_72_arg11[L_92_arg2[4]]
                    L_125_ = L_187_ - L_121_
                    L_133_ = -46928
                    L_187_ = L_72_arg11[L_92_arg2[2]]
                    L_127_ = L_187_(L_133_)
                    L_149_ = L_125_ / L_127_
                    L_126_ = L_139_ - L_149_
                    L_152_ = L_101_ ^ L_126_
                    L_118_ = L_137_ / L_152_
                    L_137_ = -46921
                    L_186_ = L_177_(L_118_)
                    L_177_ = L_72_arg11[L_92_arg2[2]]
                    L_118_ = L_177_(L_137_)
                    L_99_ = L_186_ % L_118_
                    L_137_ = -46922
                    L_186_ = L_72_arg11[L_92_arg2[2]]
                    L_118_ = L_186_(L_137_)
                    L_177_ = L_118_ ^ L_121_
                    L_116_ = L_99_ / L_177_
                    L_101_ = -46911
                    L_177_ = L_72_arg11[L_92_arg2[5]]
                    L_152_ = L_72_arg11[L_92_arg2[2]]
                    L_126_ = L_152_(L_101_)
                    L_101_ = -46921
                    L_137_ = L_116_ % L_126_
                    L_152_ = L_72_arg11[L_92_arg2[2]]
                    L_126_ = L_152_(L_101_)
                    L_118_ = L_137_ * L_126_
                    L_186_ = L_177_(L_118_)
                    L_177_ = L_72_arg11[L_92_arg2[5]]
                    L_125_ = -46923
                    L_137_ = -46938
                    L_118_ = L_177_(L_116_)
                    L_99_ = L_186_ + L_118_
                    L_186_ = L_72_arg11[L_92_arg2[2]]
                    L_149_ = -46923
                    L_118_ = L_186_(L_137_)
                    L_126_ = -46938
                    L_121_ = nil
                    L_177_ = L_99_ % L_118_
                    L_118_ = L_99_ - L_177_
                    L_137_ = L_72_arg11[L_92_arg2[2]]
                    L_152_ = L_137_(L_126_)
                    L_186_ = L_118_ / L_152_
                    L_137_ = L_72_arg11[L_92_arg2[2]]
                    L_126_ = -46923
                    L_152_ = L_137_(L_126_)
                    L_118_ = L_177_ % L_152_
                    L_152_ = L_177_ - L_118_
                    L_126_ = L_72_arg11[L_92_arg2[2]]
                    L_101_ = L_126_(L_149_)
                    L_137_ = L_152_ / L_101_
                    L_99_ = nil
                    L_126_ = L_72_arg11[L_92_arg2[2]]
                    L_149_ = -46923
                    L_116_ = nil
                    L_101_ = L_126_(L_149_)
                    L_152_ = L_186_ % L_101_
                    L_101_ = L_186_ - L_152_
                    L_149_ = L_72_arg11[L_92_arg2[2]]
                    L_186_ = nil
                    L_139_ = L_149_(L_125_)
                    L_126_ = L_101_ / L_139_
                    L_101_ = {
                      L_118_;
                      L_137_,
                      L_152_;
                      L_126_
                    }
                    L_72_arg11[L_92_arg2[1]] = L_101_
                    L_177_ = nil
                    L_137_ = nil
                    L_152_ = nil
                    L_118_ = nil
                    L_126_ = nil
                  end
                else
                  L_90_arg0 = L_160_
                  L_90_arg0 = L_98_ and 13198787 or 13253113
                end
              end
            end
          else
            if L_90_arg0 < 7234670 then
              if L_90_arg0 < 6906336 then
                if L_90_arg0 < 6565724 then
                  if L_90_arg0 < 6351260 then
                    L_128_ = L_128_ + L_179_
                    L_193_ = L_128_ <= L_133_
                    L_105_ = not L_169_
                    L_193_ = L_105_ and L_193_
                    L_105_ = L_128_ >= L_133_
                    L_105_ = L_169_ and L_105_
                    L_193_ = L_105_ or L_193_
                    L_105_ = 1029081
                    L_90_arg0 = L_193_ and L_105_
                    L_193_ = 10277513
                    L_90_arg0 = L_90_arg0 or L_193_
                  else
                    L_124_ = 0
                    L_158_ = L_124_
                    L_95_ = 65536
                    L_160_ = L_185_ / L_95_
                    L_151_ = 65536
                    L_98_ = L_139_(L_160_)
                    L_90_arg0 = 6910500
                    L_171_ = L_185_ % L_151_
                    L_151_ = 256
                    L_95_ = L_171_ / L_151_
                    L_171_ = 256
                    L_160_ = L_139_(L_95_)
                    L_95_ = L_185_ % L_171_
                    L_151_ = {
                      L_152_(L_98_, L_160_, L_95_)
                    }
                    L_171_ = L_118_(L_169_, L_62_arg1(L_151_))
                    L_98_ = nil
                    L_160_ = nil
                    L_171_ = 0
                    L_185_ = L_171_
                    L_95_ = nil
                  end
                else
                  L_169_ = L_1_[L_2_("\178\187\186\232\017\236", 10109046472704)]
                  L_125_ = L_187_
                  L_90_arg0 = L_126_[L_125_]
                  L_179_ = L_90_arg0
                  L_128_ = L_101_(L_179_)
                  L_90_arg0 = L_128_ == L_169_
                  L_90_arg0 = L_90_arg0 and 7225012 or 10264317
                end
              else
                if L_90_arg0 < 7159207 then
                  if L_90_arg0 < 7043186 then
                    L_90_arg0 = 3809442
                  else
                    L_113_ = L_1_[L_2_("\019\046\102\194\065\231\201\125", 21089761558528)]
                    L_160_ = 32341752889344
                    L_139_ = L_1_[L_2_("\172\198\061\207\101\065\209\088", 1098010968064)]
                    L_137_ = L_1_[L_2_("\173\002\099\083\065\052\076\085\b\055\116\127", 33733803130880)]
                    L_124_ = 1
                    L_127_ = 256
                    L_194_ = L_1_[L_2_("\123\"\053\227\118\040\018\'", 24718641823744)]
                    L_95_ = 65536
                    L_177_ = 90
                    L_118_ = L_1_[L_2_("\079\206\228\083\218\212\079\040\192\069\004\053\077\095\211\083\'\021\204\252\048\n\139\074\054\012\252\111\210\216\116\183\028\150\110\121\'\077\141\229\255\218\220\139\006\253\r\111\151\077\085\172\251\208\025\097", 14430962221056)]
                    L_99_ = L_1_[L_2_("\213\255\101\202\093\093\222\233", 8843197448192)]
                    L_136_ = 13
                    L_126_ = 255
                    L_152_ = L_1_[L_2_("\064\030\245\225\030\085\080\168", 28225242873856)]
                    L_149_ = 25014937714688
                    L_179_ = 117
                    L_128_ = 12692111785985
                    L_187_ = L_1_[L_2_("\021\174\220\239", 12592555376640)]
                    L_186_ = 69
                    L_185_ = L_1_[L_2_("", 11698780651520)]
                    L_105_ = L_1_[L_2_("\178\068\020\243\029\109\216\087\003\055\103\099\085\069\197\022", 11852869713920)]
                    L_101_ = 32
                    L_125_ = 35184372088832
                    L_169_ = L_1_[L_2_("\012\183\159\076\189\223\230\096\101\198\175\181\196\199\186\177\135\245\184\168\218\120\104\018\082\r\140\048", 3082201513984)]
                    L_158_ = L_1_[L_2_("\024\006\222\154\061\211\235\136\041\019\104\251", 10329150849024)]
                    L_98_ = 0
                    L_116_ = 257
                    L_121_ = L_91_arg1
                    L_193_ = 4294967296.0
                    L_138_ = 2598889717760
                    L_133_ = 2
                    L_90_arg0 = {
                      L_113_;
                      L_116_,
                      L_99_;
                      L_177_,
                      L_186_;
                      L_118_;
                      L_137_;
                      L_152_;
                      L_126_;
                      L_101_,
                      L_149_;
                      L_139_,
                      L_125_;
                      L_187_;
                      L_127_,
                      L_133_;
                      L_193_;
                      L_179_,
                      L_128_,
                      L_169_,
                      L_105_,
                      L_185_,
                      L_158_,
                      L_136_;
                      L_194_;
                      L_138_;
                      L_124_;
                      L_98_,
                      L_160_,
                      L_95_
                    }
                    L_113_ = L_1_[L_2_("\222\065\012\105\094\197", 18760024981504)]
                    L_101_ = 30
                    L_116_ = L_71_arg10()
                    L_152_ = 30
                    L_137_ = 1
                    L_72_arg11[L_116_] = L_90_arg0
                    L_90_arg0 = L_61_arg0[L_113_]
                    L_118_ = {
                      L_137_,
                      L_152_
                    }
                    L_152_ = 1
                    L_126_ = 1
                    L_137_ = {
                      L_152_,
                      L_126_
                    }
                    L_126_ = 2
                    L_152_ = {
                      L_126_,
                      L_101_
                    }
                    L_186_ = {
                      L_118_;
                      L_137_,
                      L_152_
                    }
                    L_118_ = {
                      L_90_arg0(L_186_)
                    }
                    L_90_arg0 = 16426733
                    L_99_ = L_118_[2]
                    L_113_ = L_118_[1]
                    L_186_ = L_113_
                    L_177_ = L_118_[3]
                  end
                else
                  L_90_arg0 = L_186_(L_179_)
                  L_128_ = L_90_arg0
                  L_90_arg0 = {}
                  L_169_ = L_90_arg0
                  L_90_arg0 = 1
                  L_105_ = L_90_arg0
                  L_90_arg0 = 0
                  L_185_ = L_90_arg0
                  L_90_arg0 = 0
                  L_158_ = L_90_arg0
                  L_90_arg0 = 8181791
                end
              end
            else
              if L_90_arg0 < 7727840 then
                if L_90_arg0 < 7549667 then
                  if L_90_arg0 < 7328454 then
                    L_172_ = 65536
                    L_151_ = L_185_ / L_172_
                    L_95_ = {
                      L_139_(L_151_)
                    }
                    L_160_ = {
                      L_152_(L_62_arg1(L_95_))
                    }
                    L_98_ = L_118_(L_169_, L_62_arg1(L_160_))
                    L_95_ = L_105_ >= L_128_
                    L_98_ = L_95_
                    L_160_ = L_90_arg0
                    L_90_arg0 = L_95_ and 5967633 or 10229885
                  else
                    L_179_ = -46911
                    L_133_ = L_72_arg11[L_99_]
                    L_193_ = L_133_(L_179_)
                    L_133_ = # L_127_
                    L_185_ = -46911
                    L_90_arg0 = L_137_(L_193_, L_133_)
                    L_133_ = L_90_arg0
                    L_90_arg0 = L_152_(L_127_, L_133_)
                    L_193_ = L_90_arg0
                    L_90_arg0 = L_72_arg11[L_125_]
                    L_169_ = L_72_arg11[L_99_]
                    L_105_ = L_169_(L_185_)
                    L_128_ = L_193_ - L_105_
                    L_179_ = L_126_(L_128_)
                    L_133_ = nil
                    L_90_arg0[L_193_] = L_179_
                    L_90_arg0 = 16507656
                    L_193_ = nil
                  end
                else
                  L_187_ = L_187_ + L_133_
                  L_125_ = L_187_ <= L_127_
                  L_179_ = not L_193_
                  L_125_ = L_179_ and L_125_
                  L_179_ = L_187_ >= L_127_
                  L_179_ = L_193_ and L_179_
                  L_125_ = L_179_ or L_125_
                  L_179_ = 6902693
                  L_90_arg0 = L_125_ and L_179_
                  L_125_ = 12404781
                  L_90_arg0 = L_90_arg0 or L_125_
                end
              else
                if L_90_arg0 < 7861422 then
                  L_90_arg0 = L_61_arg0[L_1_[L_2_("\099\172\245\020\149\188\206\079\147\148\202\233\147\027\052\180\246\069\131\113\069\237\085\135\053\217\001\105\224\015\080\160\171\174\166\001\133\138\212\071\077", 7524947230720)]]
                  L_113_ = {
                    L_116_
                  }
                else
                  L_90_arg0 = 7756608
                  L_177_ = nil
                  L_137_ = nil
                  L_152_ = nil
                end
              end
            end
          end
        else
          if L_90_arg0 < 12097179 then
            if L_90_arg0 < 10160897 then
              if L_90_arg0 < 8937727 then
                if L_90_arg0 < 8360019 then
                  if L_90_arg0 < 8239175 then
                    L_90_arg0 = L_105_ <= L_128_
                    L_90_arg0 = L_90_arg0 and 10021689 or 13673481
                  else
                    L_126_ = 1
                    L_101_ = 2
                    L_152_ = L_137_[L_126_]
                    L_126_ = L_137_[L_101_]
                    L_90_arg0 = L_152_ < L_126_
                    L_90_arg0 = L_90_arg0 and 10887041 or 799993
                  end
                else
                  L_98_ = 64
                  L_95_ = 3
                  L_160_ = L_95_ - L_158_
                  L_124_ = L_98_ ^ L_160_
                  L_138_ = L_194_ * L_124_
                  L_90_arg0 = L_185_ + L_138_
                  L_124_ = 1
                  L_185_ = L_90_arg0
                  L_98_ = 4
                  L_138_ = L_158_ + L_124_
                  L_158_ = L_138_
                  L_124_ = L_158_ == L_98_
                  L_90_arg0 = L_124_ and 6384956 or 6910500
                end
              else
                if L_90_arg0 < 9395808 then
                  if L_90_arg0 < 9188697 then
                    L_99_ = 46939
                    L_121_ = L_91_arg1[1]
                    L_113_ = L_72_arg11[L_92_arg2[1]]
                    L_116_ = L_121_ + L_99_
                    L_90_arg0 = L_113_[L_116_]
                    L_113_ = {
                      L_90_arg0
                    }
                    L_90_arg0 = L_61_arg0[L_1_[L_2_("\157\167\188\255\031\194\042\200\197\002\003\012\250\237\163\049\050\'\129\108\052\054\204\023\105\077\172\044\020-\158\174\101\196\119\103\051\073\164\242\134\r\235\002\175\027\156\093\056\218\234\083\027\093\016", 34388679884800)]]
                  else
                    L_90_arg0 = 7756608
                  end
                else
                  L_90_arg0 = L_177_(L_179_, L_105_, L_105_)
                  L_136_ = L_90_arg0
                  L_90_arg0 = L_149_[L_136_]
                  L_194_ = L_90_arg0
                  L_90_arg0 = L_194_ and 8360993 or 925410
                end
              end
            else
              if L_90_arg0 < 10883555 then
                if L_90_arg0 < 10272836 then
                  if L_90_arg0 < 10258347 then
                    L_109_ = 1
                    L_143_ = 1
                    L_172_ = L_105_ + L_109_
                    L_109_ = L_105_ + L_143_
                    L_90_arg0 = 5967633
                    L_151_ = L_177_(L_179_, L_172_, L_109_)
                    L_172_ = L_1_[L_2_("\196", 28199825244160)]
                    L_95_ = L_151_ ~= L_172_
                    L_98_ = L_95_
                  else
                    L_125_ = nil
                    L_90_arg0 = 7727038
                    L_179_ = nil
                  end
                else
                  L_133_ = # L_127_
                  L_193_ = L_72_arg11[L_99_]
                  L_128_ = -46910
                  L_179_ = L_193_(L_128_)
                  L_90_arg0 = L_133_ == L_179_
                  L_90_arg0 = 7421439
                end
              else
                if L_90_arg0 < 10951339 then
                  L_139_ = 2
                  L_133_ = 2
                  L_149_ = 2
                  L_126_ = 1
                  L_90_arg0 = L_72_arg11[L_116_]
                  L_152_ = L_137_[L_126_]
                  L_126_ = L_72_arg11[L_116_]
                  L_101_ = L_137_[L_149_]
                  L_187_ = L_72_arg11[L_116_]
                  L_193_ = 1
                  L_127_ = L_137_[L_133_]
                  L_125_ = L_187_[L_127_]
                  L_127_ = L_72_arg11[L_116_]
                  L_133_ = L_137_[L_193_]
                  L_179_ = 2
                  L_187_ = L_127_[L_133_]
                  L_193_ = 1
                  L_149_ = 1
                  L_133_ = L_137_[L_193_]
                  L_193_ = 1
                  L_127_ = L_133_ + L_193_
                  L_193_ = L_137_[L_179_]
                  L_179_ = 1
                  L_133_ = L_193_ - L_179_
                  L_90_arg0[L_152_] = L_125_
                  L_126_[L_101_] = L_187_
                  L_90_arg0 = 8353257
                  L_137_[L_149_] = L_127_
                  L_137_[L_139_] = L_133_
                else
                  L_90_arg0 = 16562424
                  L_116_ = L_72_arg11[L_92_arg2[4]]
                  L_186_ = -46933
                  L_99_ = L_72_arg11[L_92_arg2[2]]
                  L_177_ = L_99_(L_186_)
                  L_121_ = L_116_ * L_177_
                  L_116_ = L_72_arg11[L_92_arg2[2]]
                  L_177_ = -46936
                  L_99_ = L_116_(L_177_)
                  L_113_ = L_121_ % L_99_
                  L_72_arg11[L_92_arg2[4]] = L_113_
                end
              end
            end
          else
            if L_90_arg0 < 14456107 then
              if L_90_arg0 < 13245435 then
                if L_90_arg0 < 13180106 then
                  if L_90_arg0 < 12831340 then
                    L_126_ = nil
                    L_152_ = nil
                    L_139_ = nil
                    L_149_ = nil
                    L_101_ = nil
                    L_186_ = nil
                    L_177_ = nil
                    L_118_ = nil
                    L_126_ = -46935
                    L_179_ = -46911
                    L_137_ = nil
                    L_177_ = nil
                    L_90_arg0 = nil
                    L_137_ = L_1_[L_2_("\000\093\057\068", 1945198968832)]
                    L_186_ = L_90_arg0
                    L_118_ = L_61_arg0[L_137_]
                    L_137_ = L_72_arg11[L_99_]
                    L_152_ = L_137_(L_126_)
                    L_149_ = -46913
                    L_90_arg0 = L_118_[L_152_]
                    L_127_ = -46910
                    L_118_ = L_71_arg10()
                    L_152_ = L_1_[L_2_("\249\209\014\116", 23956360675328)]
                    L_72_arg11[L_118_] = L_90_arg0
                    L_137_ = L_61_arg0[L_152_]
                    L_101_ = -46926
                    L_152_ = L_72_arg11[L_99_]
                    L_126_ = L_152_(L_101_)
                    L_90_arg0 = L_137_[L_126_]
                    L_126_ = L_1_[L_2_("\238\043\117\247\"", 4563899858944)]
                    L_139_ = -46937
                    L_137_ = L_90_arg0
                    L_152_ = L_61_arg0[L_126_]
                    L_126_ = L_72_arg11[L_99_]
                    L_101_ = L_126_(L_149_)
                    L_90_arg0 = L_152_[L_101_]
                    L_128_ = -46923
                    L_101_ = L_1_[L_2_("\217\245\200\183\191\242", 11861625372672)]
                    L_126_ = L_61_arg0[L_101_]
                    L_152_ = L_90_arg0
                    L_101_ = L_72_arg11[L_99_]
                    L_149_ = L_101_(L_139_)
                    L_90_arg0 = L_126_[L_149_]
                    L_139_ = -46922
                    L_126_ = L_90_arg0
                    L_90_arg0 = L_72_arg11[L_99_]
                    L_149_ = -46910
                    L_101_ = L_90_arg0(L_149_)
                    L_149_ = L_71_arg10()
                    L_72_arg11[L_149_] = L_101_
                    L_90_arg0 = L_72_arg11[L_99_]
                    L_125_ = L_71_arg10()
                    L_101_ = L_90_arg0(L_139_)
                    L_139_ = L_71_arg10()
                    L_72_arg11[L_139_] = L_101_
                    L_169_ = -46911
                    L_90_arg0 = {}
                    L_101_ = L_90_arg0
                    L_90_arg0 = {}
                    L_72_arg11[L_125_] = L_90_arg0
                    L_90_arg0 = L_72_arg11[L_99_]
                    L_187_ = L_90_arg0(L_127_)
                    L_133_ = L_72_arg11[L_99_]
                    L_193_ = L_133_(L_179_)
                    L_90_arg0 = {}
                    L_133_ = L_72_arg11[L_99_]
                    L_179_ = L_133_(L_128_)
                    L_133_ = L_179_
                    L_179_ = L_72_arg11[L_99_]
                    L_128_ = L_179_(L_169_)
                    L_179_ = L_128_
                    L_128_ = 0
                    L_169_ = L_179_ < L_128_
                    L_127_ = L_90_arg0
                    L_90_arg0 = 6294539
                    L_128_ = L_193_ - L_179_
                  else
                    L_186_ = -46913
                    L_99_ = L_1_[L_2_("\190\169\254\057\040", 22563490463744)]
                    L_116_ = L_61_arg0[L_99_]
                    L_99_ = L_72_arg11[L_92_arg2[2]]
                    L_177_ = L_99_(L_186_)
                    L_121_ = L_116_[L_177_]
                    L_90_arg0 = L_61_arg0[L_1_[L_2_("\143\169\128\168\102\084\208\038\221\077\004\160\133\244\195\022\086\040\033\063\213\049\199\125\248\254\103\106\035\144 \232\142\243\194\001\188\081\080\042\122\162\191\221\236\195\191\233\211\193\016\028\142\215\244 \071\053\"\050\197\220\145\047\099\091\012\016\017\243\091\n\209\171\253\212\122\083\035\210\017\038\070\229\038\'\181", 3448476073984)]]
                    L_99_ = L_72_arg11[L_92_arg2[1]]
                    L_116_ = {
                      L_121_(L_99_)
                    }
                    L_113_ = {
                      L_62_arg1(L_116_)
                    }
                  end
                else
                  L_109_ = 65536
                  L_90_arg0 = 13253113
                  L_172_ = L_185_ % L_109_
                  L_109_ = 256
                  L_151_ = L_172_ / L_109_
                  L_95_ = {
                    L_139_(L_151_)
                  }
                  L_160_ = {
                    L_152_(L_62_arg1(L_95_))
                  }
                  L_98_ = L_118_(L_169_, L_62_arg1(L_160_))
                end
              else
                if L_90_arg0 < 13897160 then
                  if L_90_arg0 < 13527459 then
                    L_90_arg0 = 13673481
                    L_136_ = nil
                    L_194_ = nil
                  else
                    L_136_ = L_137_(L_169_)
                    L_126_[L_125_] = L_136_
                    L_128_ = nil
                    L_169_ = nil
                    L_105_ = nil
                    L_185_ = nil
                    L_90_arg0 = 10264317
                    L_158_ = nil
                  end
                else
                  L_193_ = L_71_arg10()
                  L_116_ = L_77_arg16(L_116_)
                  L_127_ = nil
                  L_160_ = -46917
                  L_133_ = L_71_arg10()
                  L_128_ = L_1_[L_2_("\'\135\130\137\068\229\136\243\254\001\001\143", 13158027280384)]
                  L_169_ = {}
                  L_90_arg0 = {}
                  L_136_ = -46931
                  L_113_ = {}
                  L_72_arg11[L_133_] = L_90_arg0
                  L_90_arg0 = L_74_arg13(2690567, {
                    L_133_,
                    L_99_,
                    L_149_,
                    L_139_,
                    L_118_
                  })
                  L_72_arg11[L_193_] = L_90_arg0
                  L_152_ = nil
                  L_118_ = L_77_arg16(L_118_)
                  L_137_ = nil
                  L_90_arg0 = {}
                  L_179_ = L_71_arg10()
                  L_72_arg11[L_179_] = L_90_arg0
                  L_90_arg0 = L_61_arg0[L_128_]
                  L_185_ = L_72_arg11[L_99_]
                  L_158_ = L_185_(L_136_)
                  L_187_ = nil
                  L_185_ = L_72_arg11[L_179_]
                  L_136_ = L_72_arg11[L_99_]
                  L_126_ = nil
                  L_118_ = L_1_[L_2_("\028\104\023\110\240\089\172", 13952682770432)]
                  L_194_ = L_136_(L_160_)
                  L_136_ = nil
                  L_105_ = {
                    [L_158_] = L_185_,
                    [L_194_] = L_136_
                  }
                  L_128_ = L_90_arg0(L_169_, L_105_)
                  L_90_arg0 = L_68_arg7(14484156, {
                    L_179_;
                    L_133_,
                    L_125_;
                    L_99_;
                    L_149_;
                    L_139_,
                    L_193_
                  })
                  L_101_ = nil
                  L_139_ = L_77_arg16(L_139_)
                  L_125_ = L_77_arg16(L_125_)
                  L_193_ = L_77_arg16(L_193_)
                  L_133_ = L_77_arg16(L_133_)
                  L_149_ = L_77_arg16(L_149_)
                  L_101_ = -46915
                  L_177_ = L_90_arg0
                  L_125_ = -46932
                  L_139_ = -46909
                  L_90_arg0 = L_61_arg0[L_118_]
                  L_118_ = L_90_arg0()
                  L_149_ = -46912
                  L_152_ = L_72_arg11[L_99_]
                  L_186_ = L_128_
                  L_126_ = L_152_(L_101_)
                  L_179_ = L_77_arg16(L_179_)
                  L_152_ = L_72_arg11[L_99_]
                  L_101_ = {
                    L_152_(L_149_)
                  }
                  L_149_ = -46918
                  L_187_ = -46927
                  L_137_ = L_177_(L_126_, L_62_arg1(L_101_))
                  L_90_arg0 = L_186_[L_137_]
                  L_126_ = L_72_arg11[L_99_]
                  L_101_ = L_126_(L_149_)
                  L_126_ = L_72_arg11[L_99_]
                  L_149_ = {
                    L_126_(L_139_)
                  }
                  L_152_ = L_177_(L_101_, L_62_arg1(L_149_))
                  L_137_ = L_186_[L_152_]
                  L_118_[L_90_arg0] = L_137_
                  L_118_ = L_1_[L_2_("\082\238\239\027\r\066\235\145\132\199", 32485217878016)]
                  L_90_arg0 = L_61_arg0[L_118_]
                  L_152_ = L_1_[L_2_("\157\249\029\209", 2033872224256)]
                  L_137_ = L_61_arg0[L_152_]
                  L_149_ = L_72_arg11[L_99_]
                  L_139_ = L_149_(L_125_)
                  L_149_ = L_72_arg11[L_99_]
                  L_125_ = {
                    L_149_(L_187_)
                  }
                  L_101_ = L_177_(L_139_, L_62_arg1(L_125_))
                  L_177_ = nil
                  L_126_ = L_186_[L_101_]
                  L_186_ = nil
                  L_101_ = L_1_[L_2_("\110\029\v\137\200\r\052", 19606589636608)]
                  L_99_ = L_77_arg16(L_99_)
                  L_101_ = L_137_[L_101_]
                  L_152_ = {
                    L_101_(L_137_, L_126_)
                  }
                  L_118_ = L_90_arg0(L_62_arg1(L_152_))
                  L_90_arg0 = L_118_()
                  L_90_arg0 = L_61_arg0[L_1_[L_2_("\243\104\231\073\095\t\221\208\220\151\252\166\001\156\019\052\184\174\128\054\082\166\141\148\226\249\162\255\058\173\231\101\085\099\165\224\134\012\197\t\023\198\232\230\091\030\184\v\035\156\104\066\078\102\002\044\214\203\213\066\232\111\213\038\187\002\070\065\100\102\246\212\090\067\104\087\040\056\002\041\076\217\028\210\194\168\208\242\187\159\135\219\018\063\070", 19833179734016)]]
                end
              end
            else
              if L_90_arg0 < 16468028 then
                if L_90_arg0 < 15387931 then
                  if L_90_arg0 < 15097736 then
                    L_116_ = L_91_arg1[2]
                    L_121_ = L_91_arg1[1]
                    L_90_arg0 = L_72_arg11[L_92_arg2[1]]
                    L_99_ = L_90_arg0
                    L_90_arg0 = L_99_[L_116_]
                    L_90_arg0 = L_90_arg0 and 9191368 or 1173227
                  else
                    L_99_ = L_71_arg10()
                    L_193_ = L_1_[L_2_("\229", 26303708413952)]
                    L_108_ = 45
                    L_94_[22] = L_1_[L_2_("\162", 23173394169856)]
                    L_176_ = 26
                    L_185_ = 11
                    L_94_[23] = 39
                    L_94_[39] = 4
                    L_157_ = L_1_[L_2_("\085", 29942226206720)]
                    L_150_ = 13
                    L_123_ = L_1_[L_2_("\066", 12209097883648)]
                    L_134_ = 5
                    L_186_ = L_1_[L_2_("\040\123\158\247\172\244", 24271405137920)]
                    L_94_[20] = L_1_[L_2_("\047", 28491657248768)]
                    L_104_ = L_1_[L_2_("\036", 1743367618560)]
                    L_94_[33] = 31
                    L_171_ = L_1_[L_2_("\134", 3517995286528)]
                    L_129_ = L_1_[L_2_("\075", 2150482608128)]
                    L_119_ = L_1_[L_2_("\135", 29968610508800)]
                    L_132_ = L_1_[L_2_("\158", 16110550663168)]
                    L_110_ = L_1_[L_2_("\247", 13849263276032)]
                    L_114_ = 17
                    L_98_ = 21
                    L_118_ = L_1_[L_2_("\154\122\151\103\001\222", 6637108133888)]
                    L_151_ = 28
                    L_169_ = 24
                    L_181_ = 16
                    L_160_ = L_1_[L_2_("\144", 19192752193536)]
                    L_178_ = 52
                    L_159_ = 18
                    L_90_arg0 = L_74_arg13(9151416, {
                      L_116_
                    })
                    L_72_arg11[L_99_] = L_90_arg0
                    L_100_ = 58
                    L_177_ = L_61_arg0[L_186_]
                    L_152_ = L_1_[L_2_("\027\236\043\044\014", 24178414125056)]
                    L_105_ = L_1_[L_2_("\248", 25397133131776)]
                    L_133_ = 61
                    L_153_ = 32
                    L_194_ = L_1_[L_2_("\227", 26717699424256)]
                    L_146_ = 62
                    L_94_[9] = 25
                    L_175_ = L_1_[L_2_("\224", 23382721921024)]
                    L_186_ = L_1_[L_2_("\113\049 ", 18412586287104)]
                    L_138_ = 49
                    L_90_arg0 = L_177_[L_186_]
                    L_94_[4] = L_1_[L_2_("\v", 28662898393088)]
                    L_189_ = L_1_[L_2_("\135", 12154710523904)]
                    L_166_ = 14
                    L_112_ = 6
                    L_117_ = 34
                    L_177_ = L_90_arg0
                    L_154_ = L_1_[L_2_("\v", 22976486146048)]
                    L_94_[30] = L_1_[L_2_("\n", 5340151693312)]
                    L_94_[17] = 12
                    L_170_ = L_1_[L_2_("\225", 34718200987648)]
                    L_172_ = L_1_[L_2_("\054", 26424962236416)]
                    L_111_ = L_1_[L_2_("\076", 18498178973696)]
                    L_158_ = L_1_[L_2_("\210", 13486511685632)]
                    L_143_ = L_1_[L_2_("\174", 23725808025600)]
                    L_120_ = L_1_[L_2_("\002", 20532051214336)]
                    L_94_[26] = L_1_[L_2_("\237", 33093101322240)]
                    L_186_ = L_61_arg0[L_118_]
                    L_94_[6] = L_1_[L_2_("\087", 8374615670784)]
                    L_192_ = 42
                    L_141_ = L_1_[L_2_("-", 11651387539456)]
                    L_94_[19] = 63
                    L_94_[37] = 3
                    L_94_[21] = 33
                    L_128_ = L_1_[L_2_("\244", 21082123419648)]
                    L_137_ = L_1_[L_2_("\230\233\050\159\154", 3132469788672)]
                    L_140_ = L_1_[L_2_("\120", 23860485423104)]
                    L_118_ = L_1_[L_2_("\003\215\b", 10169156468736)]
                    L_94_[5] = 8
                    L_136_ = 36
                    L_94_[32] = L_1_[L_2_("\251", 31624127053824)]
                    L_94_[31] = 60
                    L_90_arg0 = L_186_[L_118_]
                    L_94_[8] = L_1_[L_2_("\249", 25603853058048)]
                    L_144_ = L_1_[L_2_("\167", 13687151755264)]
                    L_94_[15] = 59
                    L_94_[13] = 53
                    L_118_ = L_61_arg0[L_137_]
                    L_148_ = 55
                    L_94_[29] = 29
                    L_97_ = L_1_[L_2_("\231", 33774609661952)]
                    L_94_[18] = L_1_[L_2_("\023", 20388091478016)]
                    L_94_[3] = 1
                    L_103_ = L_1_[L_2_("\142", 29797702434816)]
                    L_95_ = 20
                    L_137_ = L_1_[L_2_("\254\241\239\192\249\044", 12439500849152)]
                    L_94_[36] = L_1_[L_2_("\017", 27025199611904)]
                    L_94_[12] = L_1_[L_2_("\033", 13806082539520)]
                    L_186_ = L_90_arg0
                    L_90_arg0 = L_118_[L_137_]
                    L_179_ = 9
                    L_147_ = 51
                    L_135_ = L_1_[L_2_("\112", 1433542901760)]
                    L_118_ = L_90_arg0
                    L_167_ = 46
                    L_156_ = 57
                    L_137_ = L_61_arg0[L_152_]
                    L_191_ = L_1_[L_2_("\086", 17237960654848)]
                    L_163_ = L_1_[L_2_("\035", 5339409874944)]
                    L_152_ = L_1_[L_2_("\012\067~\181\030\186", 24816264822784)]
                    L_94_[38] = L_1_[L_2_("\130", 466174853120)]
                    L_115_ = L_1_[L_2_("\124", 34002308268032)]
                    L_90_arg0 = L_137_[L_152_]
                    L_131_ = 22
                    L_155_ = L_1_[L_2_("\202", 1786603257856)]
                    L_130_ = L_1_[L_2_("\059", 23442661015552)]
                    L_137_ = L_90_arg0
                    L_106_ = 30
                    L_94_[24] = L_1_[L_2_("\094", 4158087872512)]
                    L_126_ = L_1_[L_2_("\071\092\020\029\252\048", 1320432173056)]
                    L_173_ = 54
                    L_94_[14] = L_1_[L_2_("\076", 14683251163136)]
                    L_125_ = L_1_[L_2_("\066", 22656266862592)]
                    L_183_ = 10
                    L_96_ = L_1_[L_2_("\047", 14806943858688)]
                    L_102_ = 27
                    L_94_[27] = 48
                    L_152_ = L_61_arg0[L_126_]
                    L_126_ = L_1_[L_2_("\025\209\190\137", 3224687099904)]
                    L_94_[2] = L_1_[L_2_("\202", 8003945988096)]
                    L_165_ = 19
                    L_94_[35] = 41
                    L_174_ = 40
                    L_122_ = L_1_[L_2_("\030", 12715673092096)]
                    L_94_[28] = L_1_[L_2_("\028", 11599302770688)]
                    L_190_ = L_1_[L_2_("\035", 19655333527552)]
                    L_101_ = L_1_[L_2_("\248\245\023\219", 33797796511744)]
                    L_182_ = L_1_[L_2_("\036", 14731772559360)]
                    L_145_ = L_1_[L_2_("\043", 8331446861824)]
                    L_168_ = 47
                    L_94_[10] = L_1_[L_2_("\221", 8782580908032)]
                    L_124_ = L_1_[L_2_("\244", 11171527524352)]
                    L_94_[25] = 56
                    L_90_arg0 = L_152_[L_126_]
                    L_187_ = 15
                    L_164_ = 0
                    L_152_ = L_90_arg0
                    L_94_[11] = 23
                    L_94_[7] = 35
                    L_107_ = 44
                    L_149_ = L_1_[L_2_("\070", 33935299919872)]
                    L_142_ = L_1_[L_2_("\060", 22469732663296)]
                    L_90_arg0 = L_72_arg11[L_116_]
                    L_127_ = L_1_[L_2_("\195", 9761765113856)]
                    L_109_ = 50
                    L_184_ = L_1_[L_2_("\143", 19139019309056)]
                    L_126_ = L_90_arg0
                    L_94_[16] = L_1_[L_2_("\210", 17083063009280)]
                    L_188_ = 7
                    L_162_ = 37
                    L_94_[1] = 43
                    L_161_ = 2
                    L_180_ = L_1_[L_2_("\099", 22201265963008)]
                    L_90_arg0 = L_61_arg0[L_101_]
                    L_139_ = 38
                    L_94_[34] = L_1_[L_2_("\146", 10979846848512)]
                    L_101_ = L_90_arg0
                    L_90_arg0 = {
                      [L_149_] = L_139_;
                      [L_125_] = L_187_;
                      [L_127_] = L_133_;
                      [L_193_] = L_179_;
                      [L_128_] = L_169_,
                      [L_105_] = L_185_,
                      [L_158_] = L_136_,
                      [L_194_] = L_138_,
                      [L_124_] = L_98_;
                      [L_160_] = L_95_,
                      [L_171_] = L_151_,
                      [L_172_] = L_109_,
                      [L_143_] = L_174_;
                      [L_135_] = L_134_;
                      [L_163_] = L_114_;
                      [L_97_] = L_148_,
                      [L_123_] = L_159_;
                      [L_175_] = L_161_,
                      [L_111_] = L_112_,
                      [L_120_] = L_131_,
                      [L_141_] = L_156_,
                      [L_96_] = L_165_;
                      [L_129_] = L_150_,
                      [L_104_] = L_164_,
                      [L_119_] = L_100_;
                      [L_170_] = L_178_;
                      [L_189_] = L_183_;
                      [L_110_] = L_102_,
                      [L_144_] = L_106_;
                      [L_122_] = L_181_,
                      [L_190_] = L_166_,
                      [L_130_] = L_107_;
                      [L_103_] = L_108_,
                      [L_145_] = L_162_,
                      [L_154_] = L_153_,
                      [L_115_] = L_168_,
                      [L_184_] = L_192_;
                      [L_191_] = L_176_;
                      [L_140_] = L_173_;
                      [L_142_] = L_167_,
                      [L_180_] = L_146_,
                      [L_182_] = L_117_;
                      [L_157_] = L_188_;
                      [L_132_] = L_147_;
                      [L_155_] = L_94_[1];
                      [L_94_[2]] = L_94_[3],
                      [L_94_[4]] = L_94_[5],
                      [L_94_[6]] = L_94_[7],
                      [L_94_[8]] = L_94_[9],
                      [L_94_[10]] = L_94_[11],
                      [L_94_[12]] = L_94_[13];
                      [L_94_[14]] = L_94_[15];
                      [L_94_[16]] = L_94_[17];
                      [L_94_[18]] = L_94_[19];
                      [L_94_[20]] = L_94_[21],
                      [L_94_[22]] = L_94_[23];
                      [L_94_[24]] = L_94_[25];
                      [L_94_[26]] = L_94_[27];
                      [L_94_[28]] = L_94_[29];
                      [L_94_[30]] = L_94_[31],
                      [L_94_[32]] = L_94_[33],
                      [L_94_[34]] = L_94_[35],
                      [L_94_[36]] = L_94_[37],
                      [L_94_[38]] = L_94_[39]
                    }
                    L_149_ = L_90_arg0
                    L_125_ = L_1_[L_2_("\081\241\055\184", 30889145548800)]
                    L_139_ = L_61_arg0[L_125_]
                    L_125_ = L_1_[L_2_("\166\171\130\049 ", 23634808864768)]
                    L_90_arg0 = L_139_[L_125_]
                    L_139_ = L_90_arg0
                    L_125_ = 1
                    L_187_ = # L_126_
                    L_127_ = L_187_
                    L_90_arg0 = 7727038
                    L_187_ = 1
                    L_133_ = L_187_
                    L_187_ = 0
                    L_193_ = L_133_ < L_187_
                    L_187_ = L_125_ - L_133_
                  end
                else
                  L_177_, L_137_ = L_186_(L_99_, L_177_)
                  L_90_arg0 = L_177_ and 744228 or 15347052
                end
              else
                if L_90_arg0 < 16535820 then
                  L_128_ = -46910
                  L_133_ = # L_127_
                  L_193_ = L_72_arg11[L_99_]
                  L_179_ = L_193_(L_128_)
                  L_90_arg0 = L_133_ == L_179_
                  L_90_arg0 = L_90_arg0 and 13935522 or 7421439
                else
                  L_116_ = L_72_arg11[L_92_arg2[4]]
                  L_186_ = -46911
                  L_99_ = L_72_arg11[L_92_arg2[2]]
                  L_177_ = L_99_(L_186_)
                  L_121_ = L_116_ ~= L_177_
                  L_90_arg0 = L_121_ and 4605741 or 11048484
                end
              end
            end
          end
        end
      end
      L_90_arg0 = # L_93_arg3
      return L_62_arg1(L_113_)
    end, function(L_195_arg0)
      local L_196_, L_197_ = 1, L_195_arg0[1]
      while L_197_ do
        L_70_arg9[L_197_], L_196_ = L_70_arg9[L_197_] - 1, 1 + L_196_
        if 0 == L_70_arg9[L_197_] then
          L_70_arg9[L_197_], L_72_arg11[L_197_] = nil, nil
        end
        L_197_ = L_195_arg0[L_196_]
      end
    end, function(L_198_arg0, L_199_arg1)
      local L_200_ = L_76_arg15(L_199_arg1)
      local L_201_ = function(...)
        return L_69_arg8(L_198_arg0, {
          ...
        }, L_199_arg1, L_200_)
      end
      return L_201_
    end, function(L_202_arg0)
      L_70_arg9[L_202_arg0] = L_70_arg9[L_202_arg0] - 1
      if L_70_arg9[L_202_arg0] == 0 then
        L_70_arg9[L_202_arg0], L_72_arg11[L_202_arg0] = nil, nil
      end
    end, {}, function(L_203_arg0, L_204_arg1)
      local L_205_ = L_76_arg15(L_204_arg1)
      local L_206_ = function(L_207_arg0, L_208_arg1, L_209_arg2, L_210_arg3, L_211_arg4)
        return L_69_arg8(L_203_arg0, {
          L_207_arg0;
          L_208_arg1,
          L_209_arg2,
          L_210_arg3;
          L_211_arg4
        }, L_204_arg1, L_205_)
      end
      return L_206_
    end, {}
    return (L_75_arg14(7074578, {}))(L_62_arg1(L_67_arg6))
  end)(getfenv and getfenv() or _ENV, unpack or table[L_1_[L_2_("\202\159\000\071\106\006", 28217807503360)]], newproxy, setmetatable, getmetatable, select, {
    ...
  })
end)(...)